<?xml version="1.0"?>
<opencv_storage>
<cascade>
  <stageType>BOOST</stageType>
  <featureType>HAAR</featureType>
  <height>20</height>
  <width>20</width>
  <stageParams>
    <boostType>GAB</boostType>
    <minHitRate>9.9900001287460327e-01</minHitRate>
    <maxFalseAlarm>5.0000000745058060e-02</maxFalseAlarm>
    <weightTrimRate>9.4999999999999996e-01</weightTrimRate>
    <maxDepth>1</maxDepth>
    <maxWeakCount>100</maxWeakCount></stageParams>
  <featureParams>
    <maxCatCount>0</maxCatCount>
    <featSize>1</featSize>
    <mode>ALL</mode></featureParams>
  <stageNum>3</stageNum>
  <stages>
    <!-- stage 0 -->
    <_>
      <maxWeakCount>7</maxWeakCount>
      <stageThreshold>-6.0532563924789429e-01</stageThreshold>
      <weakClassifiers>
        <_>
          <internalNodes>
            0 -1 14 1.2898725457489491e-02</internalNodes>
          <leafValues>
            -6.9741696119308472e-01 8.2532751560211182e-01</leafValues></_>
        <_>
          <internalNodes>
            0 -1 6 4.8100301064550877e-03</internalNodes>
          <leafValues>
            -6.1753177642822266e-01 8.9157819747924805e-01</leafValues></_>
        <_>
          <internalNodes>
            0 -1 7 -1.6001172363758087e-02</internalNodes>
          <leafValues>
            7.2912114858627319e-01 -6.3145911693572998e-01</leafValues></_>
        <_>
          <internalNodes>
            0 -1 9 1.2817662209272385e-02</internalNodes>
          <leafValues>
            -8.6648380756378174e-01 5.7097244262695312e-01</leafValues></_>
        <_>
          <internalNodes>
            0 -1 0 1.8640033900737762e-02</internalNodes>
          <leafValues>
            -9.2294573783874512e-01 4.4360423088073730e-01</leafValues></_>
        <_>
          <internalNodes>
            0 -1 3 -2.6689007878303528e-02</internalNodes>
          <leafValues>
            9.8795515298843384e-01 -5.3835928440093994e-01</leafValues></_>
        <_>
          <internalNodes>
            0 -1 10 -1.6983635723590851e-02</internalNodes>
          <leafValues>
            9.9714386463165283e-01 -4.9571537971496582e-01</leafValues></_></weakClassifiers></_>
    <!-- stage 1 -->
    <_>
      <maxWeakCount>6</maxWeakCount>
      <stageThreshold>-1.0629872083663940e+00</stageThreshold>
      <weakClassifiers>
        <_>
          <internalNodes>
            0 -1 15 4.3998407199978828e-03</internalNodes>
          <leafValues>
            -6.0804021358489990e-01 9.0074443817138672e-01</leafValues></_>
        <_>
          <internalNodes>
            0 -1 12 1.2325205840170383e-02</internalNodes>
          <leafValues>
            -6.0932880640029907e-01 8.0801522731781006e-01</leafValues></_>
        <_>
          <internalNodes>
            0 -1 2 2.1569153293967247e-02</internalNodes>
          <leafValues>
            5.5167019367218018e-01 -9.6277755498886108e-01</leafValues></_>
        <_>
          <internalNodes>
            0 -1 19 9.6978005021810532e-03</internalNodes>
          <leafValues>
            -9.3030649423599243e-01 4.5267140865325928e-01</leafValues></_>
        <_>
          <internalNodes>
            0 -1 17 -6.2707541510462761e-03</internalNodes>
          <leafValues>
            9.7143244743347168e-01 -5.1150482892990112e-01</leafValues></_>
        <_>
          <internalNodes>
            0 -1 13 -6.1400299891829491e-03</internalNodes>
          <leafValues>
            9.9295264482498169e-01 -4.6426174044609070e-01</leafValues></_></weakClassifiers></_>
    <!-- stage 2 -->
    <_>
      <maxWeakCount>7</maxWeakCount>
      <stageThreshold>3.9578714966773987e-01</stageThreshold>
      <weakClassifiers>
        <_>
          <internalNodes>
            0 -1 5 -1.6750548034906387e-02</internalNodes>
          <leafValues>
            -9.7560977935791016e-01 4.7619047760963440e-01</leafValues></_>
        <_>
          <internalNodes>
            0 -1 8 -2.4935979396104813e-02</internalNodes>
          <leafValues>
            9.7694742679595947e-01 -5.2748405933380127e-01</leafValues></_>
        <_>
          <internalNodes>
            0 -1 11 1.6215171664953232e-02</internalNodes>
          <leafValues>
            4.9265033006668091e-01 -9.5832329988479614e-01</leafValues></_>
        <_>
          <internalNodes>
            0 -1 4 -4.7893328592181206e-03</internalNodes>
          <leafValues>
            9.0537470579147339e-01 -5.0324684381484985e-01</leafValues></_>
        <_>
          <internalNodes>
            0 -1 18 -7.9635847359895706e-03</internalNodes>
          <leafValues>
            5.4984420537948608e-01 -9.1006475687026978e-01</leafValues></_>
        <_>
          <internalNodes>
            0 -1 16 4.4627888128161430e-03</internalNodes>
          <leafValues>
            -5.8447045087814331e-01 9.4309097528457642e-01</leafValues></_>
        <_>
          <internalNodes>
            0 -1 1 -4.0770151827018708e-05</internalNodes>
          <leafValues>
            -1. 5.4359096288681030e-01</leafValues></_></weakClassifiers></_></stages>
  <features>
    <_>
      <rects>
        <_>
          0 0 20 5 -1.</_>
        <_>
          5 0 10 5 2.</_></rects>
      <tilted>0</tilted></_>
    <_>
      <rects>
        <_>
          0 18 1 2 -1.</_>
        <_>
          0 19 1 1 2.</_></rects>
      <tilted>0</tilted></_>
    <_>
      <rects>
        <_>
          4 5 12 10 -1.</_>
        <_>
          10 5 6 10 2.</_></rects>
      <tilted>0</tilted></_>
    <_>
      <rects>
        <_>
          5 10 3 3 -1.</_>
        <_>
          6 11 1 1 9.</_></rects>
      <tilted>0</tilted></_>
    <_>
      <rects>
        <_>
          6 6 2 2 -1.</_>
        <_>
          6 6 1 1 2.</_>
        <_>
          7 7 1 1 2.</_></rects>
      <tilted>0</tilted></_>
    <_>
      <rects>
        <_>
          6 9 12 5 -1.</_>
        <_>
          12 9 6 5 2.</_></rects>
      <tilted>0</tilted></_>
    <_>
      <rects>
        <_>
          7 6 3 1 -1.</_>
        <_>
          8 6 1 1 3.</_></rects>
      <tilted>0</tilted></_>
    <_>
      <rects>
        <_>
          7 9 6 3 -1.</_>
        <_>
          9 10 2 1 9.</_></rects>
      <tilted>0</tilted></_>
    <_>
      <rects>
        <_>
          7 12 3 4 -1.</_>
        <_>
          8 13 1 4 3.</_></rects>
      <tilted>1</tilted></_>
    <_>
      <rects>
        <_>
          8 0 12 20 -1.</_>
        <_>
          11 0 6 20 2.</_></rects>
      <tilted>0</tilted></_>
    <_>
      <rects>
        <_>
          8 6 2 12 -1.</_>
        <_>
          8 6 1 6 2.</_>
        <_>
          9 12 1 6 2.</_></rects>
      <tilted>0</tilted></_>
    <_>
      <rects>
        <_>
          8 6 6 6 -1.</_>
        <_>
          8 6 6 3 2.</_></rects>
      <tilted>1</tilted></_>
    <_>
      <rects>
        <_>
          8 10 3 3 -1.</_>
        <_>
          9 11 1 1 9.</_></rects>
      <tilted>0</tilted></_>
    <_>
      <rects>
        <_>
          8 14 3 1 -1.</_>
        <_>
          9 14 1 1 3.</_></rects>
      <tilted>0</tilted></_>
    <_>
      <rects>
        <_>
          9 7 3 3 -1.</_>
        <_>
          10 8 1 1 9.</_></rects>
      <tilted>0</tilted></_>
    <_>
      <rects>
        <_>
          10 13 3 1 -1.</_>
        <_>
          11 13 1 1 3.</_></rects>
      <tilted>0</tilted></_>
    <_>
      <rects>
        <_>
          11 11 2 2 -1.</_>
        <_>
          11 11 1 1 2.</_>
        <_>
          12 12 1 1 2.</_></rects>
      <tilted>0</tilted></_>
    <_>
      <rects>
        <_>
          13 7 1 3 -1.</_>
        <_>
          13 8 1 1 3.</_></rects>
      <tilted>0</tilted></_>
    <_>
      <rects>
        <_>
          13 14 7 6 -1.</_>
        <_>
          13 17 7 3 2.</_></rects>
      <tilted>0</tilted></_>
    <_>
      <rects>
        <_>
          14 0 6 6 -1.</_>
        <_>
          14 3 6 3 2.</_></rects>
      <tilted>0</tilted></_></features></cascade>
</opencv_storage>
