<?xml version="1.0"?>
<opencv_storage>
<stage0>
  <maxWeakCount>7</maxWeakCount>
  <stageThreshold>-6.0532563924789429e-01</stageThreshold>
  <weakClassifiers>
    <_>
      <internalNodes>
        0 -1 84176 1.2898725457489491e-02</internalNodes>
      <leafValues>
        -6.9741696119308472e-01 8.2532751560211182e-01</leafValues></_>
    <_>
      <internalNodes>
        0 -1 68325 4.8100301064550877e-03</internalNodes>
      <leafValues>
        -6.1753177642822266e-01 8.9157819747924805e-01</leafValues></_>
    <_>
      <internalNodes>
        0 -1 69940 -1.6001172363758087e-02</internalNodes>
      <leafValues>
        7.2912114858627319e-01 -6.3145911693572998e-01</leafValues></_>
    <_>
      <internalNodes>
        0 -1 72477 1.2817662209272385e-02</internalNodes>
      <leafValues>
        -8.6648380756378174e-01 5.7097244262695312e-01</leafValues></_>
    <_>
      <internalNodes>
        0 -1 424 1.8640033900737762e-02</internalNodes>
      <leafValues>
        -9.2294573783874512e-01 4.4360423088073730e-01</leafValues></_>
    <_>
      <internalNodes>
        0 -1 53719 -2.6689007878303528e-02</internalNodes>
      <leafValues>
        9.8795515298843384e-01 -5.3835928440093994e-01</leafValues></_>
    <_>
      <internalNodes>
        0 -1 76353 -1.6983635723590851e-02</internalNodes>
      <leafValues>
        9.9714386463165283e-01 -4.9571537971496582e-01</leafValues></_></weakClassifiers></stage0>
</opencv_storage>
